Build started 6/15/2015 11:00:44 AM.
     1>Project "E:\DOCUMENTS\C++\ANPR\ANPR\ANPR.vcxproj" on node 2 (Build target(s)).
     1>Link:
         C:\Program Files (x86)\Microsoft Visual Studio 12.0\VC\bin\link.exe /ERRORREPORT:PROMPT /OUT:"E:\DOCUMENTS\C++\ANPR\Debug\ANPR.exe" /INCREMENTAL /NOLOGO opencv_calib3d249d.lib opencv_contrib249d.lib opencv_core249d.lib opencv_features2d249d.lib opencv_flann249d.lib opencv_gpu249d.lib opencv_highgui249d.lib opencv_imgproc249d.lib opencv_legacy249d.lib opencv_ml249d.lib opencv_nonfree249d.lib opencv_objdetect249d.lib opencv_ocl249d.lib opencv_photo249d.lib opencv_stitching249d.lib opencv_superres249d.lib opencv_ts249d.lib opencv_video249d.lib opencv_videostab249d.lib kernel32.lib user32.lib gdi32.lib winspool.lib comdlg32.lib advapi32.lib shell32.lib ole32.lib oleaut32.lib uuid.lib odbc32.lib odbccp32.lib /ASSEMBLYRESOURCE:Debug\ANPR.MainForm.resources /MANIFEST /MANIFESTUAC:"level='asInvoker' uiAccess='false'" /manifest:embed /DEBUG /PDB:"E:\DOCUMENTS\C++\ANPR\Debug\ANPR.pdb" /ASSEMBLYDEBUG /SUBSYSTEM:WINDOWS /TLBID:1 /ENTRY:"Main" /DYNAMICBASE /FIXED:NO /NXCOMPAT /MACHINE:X86 Debug\MainForm.obj
         "Debug\.NETFramework,Version=v4.5.AssemblyAttributes.obj"
     1>MainForm.obj : error LNK2028: unresolved token (0A00091A) "extern "C" struct _IplImage * __cdecl cvLoadImage(char const *,int)" (?cvLoadImage@@$$J0YAPAU_IplImage@@PBDH@Z) referenced in function "private: void __clrcall ANPR::MainForm::btnBrowse_Click(class System::Object ^,class System::EventArgs ^)" (?btnBrowse_Click@MainForm@ANPR@@$$FA$AAMXP$AAVObject@System@@P$AAVEventArgs@4@@Z)
     1>MainForm.obj : error LNK2028: unresolved token (0A000ABE) "int __cdecl cv::_interlockedExchangeAdd(int *,int)" (?_interlockedExchangeAdd@cv@@$$FYAHPAHH@Z) referenced in function "public: void __thiscall cv::SparseMat::addref(void)" (?addref@SparseMat@cv@@$$FQAEXXZ)
     1>MainForm.obj : error LNK2028: unresolved token (0A000ACC) "public: void __thiscall cv::Mat::copySize(class cv::Mat const &)" (?copySize@Mat@cv@@$$FQAEXABV12@@Z) referenced in function "public: __thiscall cv::Mat::Mat(class cv::Mat const &)" (??0Mat@cv@@$$FQAE@ABV01@@Z)
     1>MainForm.obj : error LNK2019: unresolved external symbol "int __cdecl cv::_interlockedExchangeAdd(int *,int)" (?_interlockedExchangeAdd@cv@@$$FYAHPAHH@Z) referenced in function "public: void __thiscall cv::SparseMat::addref(void)" (?addref@SparseMat@cv@@$$FQAEXXZ)
     1>MainForm.obj : error LNK2019: unresolved external symbol "extern "C" struct _IplImage * __cdecl cvLoadImage(char const *,int)" (?cvLoadImage@@$$J0YAPAU_IplImage@@PBDH@Z) referenced in function "private: void __clrcall ANPR::MainForm::btnBrowse_Click(class System::Object ^,class System::EventArgs ^)" (?btnBrowse_Click@MainForm@ANPR@@$$FA$AAMXP$AAVObject@System@@P$AAVEventArgs@4@@Z)
     1>MainForm.obj : error LNK2019: unresolved external symbol "public: void __thiscall cv::Mat::copySize(class cv::Mat const &)" (?copySize@Mat@cv@@$$FQAEXABV12@@Z) referenced in function "public: __thiscall cv::Mat::Mat(class cv::Mat const &)" (??0Mat@cv@@$$FQAE@ABV01@@Z)
     1>MainForm.obj : error LNK2001: unresolved external symbol "public: virtual void __thiscall cv::HOGDescriptor::setSVMDetector(class cv::_InputArray const &)" (?setSVMDetector@HOGDescriptor@cv@@UAEXABV_InputArray@2@@Z)
     1>MainForm.obj : error LNK2001: unresolved external symbol "public: virtual bool __thiscall cv::HOGDescriptor::read(class cv::FileNode &)" (?read@HOGDescriptor@cv@@UAE_NAAVFileNode@2@@Z)
     1>MainForm.obj : error LNK2001: unresolved external symbol "public: virtual void __thiscall cv::HOGDescriptor::write(class cv::FileStorage &,class std::basic_string<char,struct std::char_traits<char>,class std::allocator<char> > const &)const " (?write@HOGDescriptor@cv@@UBEXAAVFileStorage@2@ABV?$basic_string@DU?$char_traits@D@std@@V?$allocator@D@2@@std@@@Z)
     1>MainForm.obj : error LNK2001: unresolved external symbol "public: virtual bool __thiscall cv::HOGDescriptor::load(class std::basic_string<char,struct std::char_traits<char>,class std::allocator<char> > const &,class std::basic_string<char,struct std::char_traits<char>,class std::allocator<char> > const &)" (?load@HOGDescriptor@cv@@UAE_NABV?$basic_string@DU?$char_traits@D@std@@V?$allocator@D@2@@std@@0@Z)
     1>MainForm.obj : error LNK2001: unresolved external symbol "public: virtual void __thiscall cv::HOGDescriptor::save(class std::basic_string<char,struct std::char_traits<char>,class std::allocator<char> > const &,class std::basic_string<char,struct std::char_traits<char>,class std::allocator<char> > const &)const " (?save@HOGDescriptor@cv@@UBEXABV?$basic_string@DU?$char_traits@D@std@@V?$allocator@D@2@@std@@0@Z)
     1>MainForm.obj : error LNK2001: unresolved external symbol "public: virtual void __thiscall cv::HOGDescriptor::copyTo(struct cv::HOGDescriptor &)const " (?copyTo@HOGDescriptor@cv@@UBEXAAU12@@Z)
     1>MainForm.obj : error LNK2001: unresolved external symbol "public: virtual void __thiscall cv::HOGDescriptor::compute(class cv::Mat const &,class std::vector<float,class std::allocator<float> > &,class cv::Size_<int>,class cv::Size_<int>,class std::vector<class cv::Point_<int>,class std::allocator<class cv::Point_<int> > > const &)const " (?compute@HOGDescriptor@cv@@UBEXABVMat@2@AAV?$vector@MV?$allocator@M@std@@@std@@V?$Size_@H@2@2ABV?$vector@V?$Point_@H@cv@@V?$allocator@V?$Point_@H@cv@@@std@@@5@@Z)
     1>MainForm.obj : error LNK2001: unresolved external symbol "public: virtual void __thiscall cv::HOGDescriptor::detect(class cv::Mat const &,class std::vector<class cv::Point_<int>,class std::allocator<class cv::Point_<int> > > &,double,class cv::Size_<int>,class cv::Size_<int>,class std::vector<class cv::Point_<int>,class std::allocator<class cv::Point_<int> > > const &)const " (?detect@HOGDescriptor@cv@@UBEXABVMat@2@AAV?$vector@V?$Point_@H@cv@@V?$allocator@V?$Point_@H@cv@@@std@@@std@@NV?$Size_@H@2@2ABV45@@Z)
     1>MainForm.obj : error LNK2001: unresolved external symbol "public: virtual void __thiscall cv::HOGDescriptor::detect(class cv::Mat const &,class std::vector<class cv::Point_<int>,class std::allocator<class cv::Point_<int> > > &,class std::vector<double,class std::allocator<double> > &,double,class cv::Size_<int>,class cv::Size_<int>,class std::vector<class cv::Point_<int>,class std::allocator<class cv::Point_<int> > > const &)const " (?detect@HOGDescriptor@cv@@UBEXABVMat@2@AAV?$vector@V?$Point_@H@cv@@V?$allocator@V?$Point_@H@cv@@@std@@@std@@AAV?$vector@NV?$allocator@N@std@@@5@NV?$Size_@H@2@3ABV45@@Z)
     1>MainForm.obj : error LNK2001: unresolved external symbol "public: virtual void __thiscall cv::HOGDescriptor::detectMultiScale(class cv::Mat const &,class std::vector<class cv::Rect_<int>,class std::allocator<class cv::Rect_<int> > > &,double,class cv::Size_<int>,class cv::Size_<int>,double,double,bool)const " (?detectMultiScale@HOGDescriptor@cv@@UBEXABVMat@2@AAV?$vector@V?$Rect_@H@cv@@V?$allocator@V?$Rect_@H@cv@@@std@@@std@@NV?$Size_@H@2@2NN_N@Z)
     1>MainForm.obj : error LNK2001: unresolved external symbol "public: virtual void __thiscall cv::HOGDescriptor::detectMultiScale(class cv::Mat const &,class std::vector<class cv::Rect_<int>,class std::allocator<class cv::Rect_<int> > > &,class std::vector<double,class std::allocator<double> > &,double,class cv::Size_<int>,class cv::Size_<int>,double,double,bool)const " (?detectMultiScale@HOGDescriptor@cv@@UBEXABVMat@2@AAV?$vector@V?$Rect_@H@cv@@V?$allocator@V?$Rect_@H@cv@@@std@@@std@@AAV?$vector@NV?$allocator@N@std@@@5@NV?$Size_@H@2@3NN_N@Z)
     1>MainForm.obj : error LNK2001: unresolved external symbol "public: virtual void __thiscall cv::HOGDescriptor::computeGradient(class cv::Mat const &,class cv::Mat &,class cv::Mat &,class cv::Size_<int>,class cv::Size_<int>)const " (?computeGradient@HOGDescriptor@cv@@UBEXABVMat@2@AAV32@1V?$Size_@H@2@2@Z)
     1>E:\DOCUMENTS\C++\ANPR\Debug\ANPR.exe : fatal error LNK1120: 18 unresolved externals
     1>Done Building Project "E:\DOCUMENTS\C++\ANPR\ANPR\ANPR.vcxproj" (Build target(s)) -- FAILED.

Build FAILED.

Time Elapsed 00:00:00.79
